/* Weights and biases */

float weights1[15][8] = {
	{-1.91948175430298, 0.0449521131813526, 0.0438090600073338, -0.0462818741798401, 0.180528149008751, 0.0828501358628273, 0.267583429813385, 0.0511482730507851},
	{0.00540332403033972, -0.00152919255197048, 0.00943523086607456, -0.00829389132559300, -0.0213642437011004, 0.00102618627715856, -0.000436690228525549, -15.6250047683716},
	{-0.535816490650177, -2.85496234893799, 4.99901342391968, -0.293968528509140, 0.505374789237976, 0.0513323396444321, -0.267495602369308, 2.76592898368835},
	{-0.988217473030090,	0.0200615283101797,	-0.0285902861505747, 0.0299078207463026, -0.00619316659867764, -0.0541120879352093, -0.0223134718835354, 0.0151482410728931},
	{-1.81566703319550, 0.118106029927731, -0.0932439267635346, 0.00759628461673856, -0.0262096635997295, 0.210742354393005, -0.165930062532425, 0.256771713495255},
	{-0.00292166904546320, 0.0147425234317780, 0.000321264786180109,	-0.00180450512561947, -0.00283740111626685,	-9.58317468757741e-05, -0.000534764258190990, 6.35257101058960},
	{-2.58911561965942, -0.339295715093613, -0.0433894544839859,	-0.176581606268883, 0.000119736447231844, 0.424262791872025, 0.126935511827469, 0.208173707127571},
	{0.00566351925954223, 0.00158449367154390, 0.00552282761782408, 0.000815536710433662, -0.00259980326518416, -2.61136046901811e-05, -3.83368969778530e-05, -8.24711608886719},
	{-2.12153911590576, -0.00827347952872515, 0.107570946216583,	-0.0108017604798079, 0.0274957027286291, -0.225702628493309, 0.233485102653503, 0.0919283106923103},
	{0.519232809543610, 2.77015352249146, -4.88255405426025, 0.284672945737839, -0.501610159873962, -0.0505958646535873, 0.259196817874908, -2.74410200119019},
	{1.05519020557404, -0.0280285067856312, 0.124057218432426, -0.00796725694090128, 0.0531477257609367,	0.0277432538568974, 0.165130481123924, -0.218090191483498},
	{-2.66488027572632, -0.00414342060685158, 0.0332266166806221, -0.0135419256985188, -0.0145537750795484, -0.250930458307266, -0.0734047666192055, -0.139348760247231},
	{1.71432948112488, -3.22114562988281, -1.56696355342865, -0.305091232061386,	-0.168205693364143,	0.102232828736305, 0.0612738095223904, -2.37462425231934},
	{1.33318054676056, 3.16283941268921,	1.67610108852386, 0.320618689060211, 0.160780534148216, -0.108131147921085, -0.0473062843084335, 5.92322731018066},
	{-0.00253474828787148, -0.00666272733360529,	-0.00293712923303247, 0.0124406097456813, -0.0102913565933704, 0.000577962608076632, -0.000662014412228018, 9.67968940734863}
};
   
float weights2[7][15] = {
	{0.00922166369855404, -0.736469566822052, -0.443249434232712, -0.0985636860132217, 0.0475424751639366, -1.03450405597687, 0.115020625293255, -0.296683132648468, -0.200633943080902, -0.358296155929565, 0.153595134615898, -0.138984784483910, -0.220603793859482, -0.247061789035797, -0.159679859876633},
	{0.196193978190422, 2.30333733558655, 0.0849599987268448, -0.889623761177063, 0.471246629953384, -4.81204605102539, 0.536885976791382, -3.65386343002319, -0.385421037673950, -0.916980981826782, 0.315443515777588, -0.490813672542572, 0.653196036815643, -1.12659013271332, 0.197004720568657},
	{0.468878865242004, -0.411055624485016, -1.04698264598846, -0.837181150913239, 0.00198120996356010, -6.99609661102295, 0.415518403053284, -0.221565008163452, 0.0296953953802586, 0.241393104195595, -0.382075011730194, -0.400407254695892, 0.642966568470001, -1.12067067623138, 3.25478315353394},
	{0.274929076433182, -3.69646167755127, -1.63324129581451, -0.0240388158708811, -0.438953787088394, -3.18095040321350, -0.0117290159687400, 3.37234854698181, 0.204838231205940, 0.845981061458588, -0.565405189990997, 0.00547822797670960, -0.254912793636322, -0.217077821493149, 2.96186017990112},
	{-0.195473909378052, -3.79436469078064, -0.982209146022797, 0.692139685153961, -0.385884046554565, 2.74288153648376, -0.299654871225357, 3.06489539146423, -0.0628745853900909, 0.182673096656799, -0.00998471304774284, 0.242607071995735, -1.09513008594513, 0.635130345821381, -0.594200730323792},
	{-0.487812817096710, -1.04654288291931, 0.158849045634270, 0.642426609992981, 0.0866966173052788, 4.93090248107910, -0.184638693928719, -0.359105259180069, -0.486547291278839, -1.00200784206390, 0.687201976776123, 0.113828562200069, -1.09236168861389, 0.621423006057739, -3.65371298789978},
	{-0.282431751489639, 2.18215203285217, 0.742475330829620, -0.180282711982727, 0.535414397716522, 1.12092006206512, 0.248138025403023, -3.93348932266235, -0.648099005222321, -1.58847463130951, 0.876032352447510, -0.253484725952148, -0.187837809324265, -0.285763740539551, -3.32898521423340}
};
   
float biases1[15] = {24.3151683807373, 34.2019157409668, 25.5020351409912, 34.9622192382813, 23.3898010253906, -35.6600151062012, 9.39764881134033, 36.9644317626953, 17.7242851257324, -24.6286945343018, -7.19691181182861, 22.0097599029541, 15.0525150299072, 1.14544308185577, -32.1283531188965};
   
float biases2[7] = {8.00949573516846, 8.72856044769287, -4.86000490188599, -15.2951650619507, -9.95754051208496, 4.24163341522217, 13.9856166839600}; 
